{
    "type": "LSTM",
    "options": {
        "inputSize": 32,
        "inputRange": 32,
        "hiddenLayers": [
            20,
            20
        ],
        "outputSize": 32,
        "decayRate": 0.999,
        "smoothEps": 1e-8,
        "regc": 0.000001,
        "clipval": 5,
        "maxPredictionLength": 100,
        "dataFormatter": {
            "values": [
                "Scribbles",
                "adssdasd",
                "asaas",
                "asdasdadwasd",
                "asdasdasdadasda",
                "buy me a laptop",
                "code",
                "computer",
                "drive",
                "hardware",
                "i broke my pc",
                "i found some bugs in the code",
                "i love computers",
                "i love to play games",
                "i need a new power supply",
                "i swapped the memory",
                "i tested the code",
                "it needs more memory",
                "my unit test failed",
                "power supply",
                "program",
                "programming",
                "sdadasdasdasdd",
                "software",
                "the drive has a 2TB capacity",
                "tried the program, but it was buggy",
                "unit-tests"
            ],
            "indexTable": {
                "2": 24,
                "S": 0,
                "c": 1,
                "r": 2,
                "i": 3,
                "b": 4,
                "l": 5,
                "e": 6,
                "s": 7,
                "a": 8,
                "d": 9,
                "w": 10,
                "u": 11,
                "y": 12,
                " ": 13,
                "m": 14,
                "p": 15,
                "t": 16,
                "o": 17,
                "v": 18,
                "h": 19,
                "k": 20,
                "f": 21,
                "n": 22,
                "g": 23,
                "T": 25,
                "B": 26,
                ",": 27,
                "-": 28,
                "stop-input": 29,
                "start-output": 30,
                "unrecognized": 31
            },
            "characterTable": {
                "0": "S",
                "1": "c",
                "2": "r",
                "3": "i",
                "4": "b",
                "5": "l",
                "6": "e",
                "7": "s",
                "8": "a",
                "9": "d",
                "10": "w",
                "11": "u",
                "12": "y",
                "13": " ",
                "14": "m",
                "15": "p",
                "16": "t",
                "17": "o",
                "18": "v",
                "19": "h",
                "20": "k",
                "21": "f",
                "22": "n",
                "23": "g",
                "24": "2",
                "25": "T",
                "26": "B",
                "27": ",",
                "28": "-",
                "29": null,
                "30": null,
                "31": null
            },
            "characters": [
                "S",
                "c",
                "r",
                "i",
                "b",
                "l",
                "e",
                "s",
                "a",
                "d",
                "w",
                "u",
                "y",
                " ",
                "m",
                "p",
                "t",
                "o",
                "v",
                "h",
                "k",
                "f",
                "n",
                "g",
                "2",
                "T",
                "B",
                ",",
                "-",
                "stop-input",
                "start-output",
                "unrecognized"
            ],
            "specialIndexes": [
                29,
                30,
                31
            ]
        }
    },
    "input": {
        "rows": 33,
        "columns": 32,
        "weights": {
            "0": -0.8924148082733154,
            "1": -0.27860555052757263,
            "2": 1.5079703330993652,
            "3": -1.1467595100402832,
            "4": -0.2454890012741089,
            "5": 0.19417472183704376,
            "6": -0.9099314212799072,
            "7": 1.1016111373901367,
            "8": 0.2455398440361023,
            "9": -0.6841292977333069,
            "10": 0.18723702430725098,
            "11": -0.9528244733810425,
            "12": 0.2982848286628723,
            "13": 0.785168468952179,
            "14": 0.5325049161911011,
            "15": -1.2346209287643433,
            "16": 0.28590813279151917,
            "17": 0.5680879354476929,
            "18": 1.2439985275268555,
            "19": -1.0542829036712646,
            "20": -1.4114524126052856,
            "21": -1.0299205780029297,
            "22": -0.2816029489040375,
            "23": -0.8475238680839539,
            "24": 0.6839314103126526,
            "25": -0.0442890003323555,
            "26": -0.19942906498908997,
            "27": -0.6845831871032715,
            "28": -0.7917277216911316,
            "29": -0.34038418531417847,
            "30": -0.6070576906204224,
            "31": 0.8869225382804871,
            "32": 0.06604065001010895,
            "33": 0.8770647048950195,
            "34": 1.880897879600525,
            "35": 1.4737505912780762,
            "36": 0.2536696195602417,
            "37": 1.6949758529663086,
            "38": -1.100854516029358,
            "39": 2.930689811706543,
            "40": -1.5874115228652954,
            "41": 0.10413999110460281,
            "42": 0.787119448184967,
            "43": 0.6452429294586182,
            "44": 2.1440296173095703,
            "45": 1.1771899461746216,
            "46": 0.5808361172676086,
            "47": -1.3685556650161743,
            "48": -1.9292649030685425,
            "49": 2.2327916622161865,
            "50": 1.2612338066101074,
            "51": -1.0723295211791992,
            "52": -0.9470788240432739,
            "53": -2.7926647663116455,
            "54": 2.7017910480499268,
            "55": 0.34727156162261963,
            "56": -0.15733380615711212,
            "57": -1.282702922821045,
            "58": -0.576703667640686,
            "59": -0.28339672088623047,
            "60": -1.6831492185592651,
            "61": 0.976953387260437,
            "62": -0.3365369439125061,
            "63": 0.996060311794281,
            "64": 1.183393955230713,
            "65": 0.8340587615966797,
            "66": 0.48588696122169495,
            "67": -0.46841004490852356,
            "68": 0.6189348101615906,
            "69": -2.2224173545837402,
            "70": 1.7563881874084473,
            "71": -1.1702128648757935,
            "72": -1.9118775129318237,
            "73": -1.3889594078063965,
            "74": 1.338339924812317,
            "75": 1.3532373905181885,
            "76": -2.2033584117889404,
            "77": -1.8964905738830566,
            "78": 2.1655476093292236,
            "79": 0.5184521079063416,
            "80": 1.8350903987884521,
            "81": -3.5264158248901367,
            "82": -1.4726746082305908,
            "83": 2.1099507808685303,
            "84": 2.863820791244507,
            "85": 1.8265752792358398,
            "86": 1.1457382440567017,
            "87": 1.5535703897476196,
            "88": -1.125646710395813,
            "89": -1.428146481513977,
            "90": -1.4639397859573364,
            "91": 1.288320779800415,
            "92": 2.2000322341918945,
            "93": -1.5206948518753052,
            "94": -0.9611353874206543,
            "95": 1.4750428199768066,
            "96": -0.1446715146303177,
            "97": 0.7586610913276672,
            "98": -0.08777812123298645,
            "99": 0.5275872945785522,
            "100": -0.02599022537469864,
            "101": 0.1808633804321289,
            "102": -0.24111609160900116,
            "103": -0.8693652153015137,
            "104": 0.6995009183883667,
            "105": -1.2343862056732178,
            "106": 0.17726226150989532,
            "107": 0.2597518265247345,
            "108": -0.3882606625556946,
            "109": 0.2893950343132019,
            "110": -0.12321203202009201,
            "111": -0.8460248708724976,
            "112": 0.2169729769229889,
            "113": -0.07846162468194962,
            "114": -0.5679495334625244,
            "115": -0.11876995861530304,
            "116": -0.4793178141117096,
            "117": 1.2893372774124146,
            "118": -0.16780102252960205,
            "119": 0.9807555675506592,
            "120": -0.9267712831497192,
            "121": -0.08026409894227982,
            "122": 0.12420444935560226,
            "123": 0.9133418202400208,
            "124": 0.4460999667644501,
            "125": -0.4274943172931671,
            "126": 0.21452966332435608,
            "127": -0.3513307571411133,
            "128": 1.2917149066925049,
            "129": -0.9397742748260498,
            "130": -0.26383963227272034,
            "131": -1.372512698173523,
            "132": 1.3134751319885254,
            "133": -0.7251259684562683,
            "134": 0.8553991317749023,
            "135": 1.0847392082214355,
            "136": -0.40336647629737854,
            "137": 2.2655324935913086,
            "138": 1.0255740880966187,
            "139": -0.14627820253372192,
            "140": -0.8752033710479736,
            "141": -1.4977506399154663,
            "142": -0.6763942837715149,
            "143": 0.5209441781044006,
            "144": 0.30811071395874023,
            "145": 1.1903077363967896,
            "146": 0.7407532334327698,
            "147": 1.4178813695907593,
            "148": 1.1891403198242188,
            "149": -1.160768985748291,
            "150": -0.8955720663070679,
            "151": -0.7116029262542725,
            "152": 0.331129252910614,
            "153": -0.0605030432343483,
            "154": -0.8892663717269897,
            "155": -0.07891705632209778,
            "156": 0.5052496194839478,
            "157": -0.4175560474395752,
            "158": 0.6231237649917603,
            "159": 0.34899407625198364,
            "160": 0.188374325633049,
            "161": -0.03718291595578194,
            "162": 1.2013310194015503,
            "163": -2.2477383613586426,
            "164": 2.100858211517334,
            "165": -1.987329125404358,
            "166": 2.804084062576294,
            "167": -2.118389844894409,
            "168": 0.4954811930656433,
            "169": 3.324702024459839,
            "170": -1.2765806913375854,
            "171": -1.2270264625549316,
            "172": -0.5870752334594727,
            "173": -4.566400527954102,
            "174": 2.784468650817871,
            "175": -2.7944729328155518,
            "176": 0.2796822190284729,
            "177": 3.4600107669830322,
            "178": 0.41363346576690674,
            "179": 4.2431511878967285,
            "180": 2.6479806900024414,
            "181": 1.7665342092514038,
            "182": -1.5014736652374268,
            "183": -1.9459724426269531,
            "184": 0.02952643111348152,
            "185": 2.1909101009368896,
            "186": 0.8770967125892639,
            "187": -0.6441238522529602,
            "188": 1.4322444200515747,
            "189": 1.6382169723510742,
            "190": 1.1691092252731323,
            "191": -1.919944167137146,
            "192": -1.2168329954147339,
            "193": 2.733612298965454,
            "194": -3.027287006378174,
            "195": 1.6224586963653564,
            "196": -0.6533970832824707,
            "197": 0.9850852489471436,
            "198": -2.0799620151519775,
            "199": -1.0860340595245361,
            "200": 3.6650891304016113,
            "201": -0.330676794052124,
            "202": -1.556539535522461,
            "203": -0.05829022452235222,
            "204": 4.117402076721191,
            "205": -0.12349346280097961,
            "206": 2.0021495819091797,
            "207": 0.9247577786445618,
            "208": -3.732253074645996,
            "209": -1.9860690832138062,
            "210": -3.1196885108947754,
            "211": 0.6951149106025696,
            "212": -1.321940302848816,
            "213": 2.074345350265503,
            "214": -0.9917144179344177,
            "215": 2.731562852859497,
            "216": -2.394895076751709,
            "217": -1.1112359762191772,
            "218": 1.4935657978057861,
            "219": 0.9508131146430969,
            "220": -2.752549886703491,
            "221": 3.510533571243286,
            "222": 2.2762506008148193,
            "223": -1.3689769506454468,
            "224": 0.14597578346729279,
            "225": 0.32234954833984375,
            "226": -0.32150548696517944,
            "227": 0.02741180546581745,
            "228": 0.278891921043396,
            "229": 0.12436887621879578,
            "230": 0.18164721131324768,
            "231": 0.08740401268005371,
            "232": -0.03933124244213104,
            "233": -0.08621103316545486,
            "234": -0.09463123977184296,
            "235": 0.1613256335258484,
            "236": -0.023656051605939865,
            "237": -0.07823515683412552,
            "238": -0.8258992433547974,
            "239": -0.027464484795928,
            "240": -0.05941097065806389,
            "241": 0.1742061972618103,
            "242": 0.17300806939601898,
            "243": 0.035015251487493515,
            "244": -0.14692246913909912,
            "245": 0.04450498893857002,
            "246": 1.3633248805999756,
            "247": 0.10318158566951752,
            "248": -0.07432600855827332,
            "249": 0.12917748093605042,
            "250": -0.11483894288539886,
            "251": 0.3226577639579773,
            "252": 0.1477833241224289,
            "253": -0.33794349431991577,
            "254": -0.4861588478088379,
            "255": 0.13871371746063232,
            "256": -2.3958921432495117,
            "257": -0.6305058598518372,
            "258": 0.6620851755142212,
            "259": 1.1976910829544067,
            "260": -0.8013470768928528,
            "261": -0.7948443293571472,
            "262": -0.6450883746147156,
            "263": -0.9459017515182495,
            "264": 2.998208999633789,
            "265": 1.0212609767913818,
            "266": -1.593954086303711,
            "267": -0.1877104640007019,
            "268": 1.0045922994613647,
            "269": 1.0998178720474243,
            "270": 1.23055899143219,
            "271": -1.2696434259414673,
            "272": -0.018854927271604538,
            "273": 0.27254122495651245,
            "274": -1.4607445001602173,
            "275": -1.8765389919281006,
            "276": -0.887962818145752,
            "277": 0.7652101516723633,
            "278": -0.7762972712516785,
            "279": -0.9080004692077637,
            "280": 1.7597367763519287,
            "281": 0.32284900546073914,
            "282": 1.7786141633987427,
            "283": -1.6860378980636597,
            "284": -0.7112932205200195,
            "285": 2.481306314468384,
            "286": 1.1815690994262695,
            "287": -1.5012280941009521,
            "288": 0.49277180433273315,
            "289": 0.9676051735877991,
            "290": -0.4681347608566284,
            "291": -1.2064440250396729,
            "292": -0.45952141284942627,
            "293": 1.2278025150299072,
            "294": -1.0737884044647217,
            "295": -0.1885518580675125,
            "296": 0.025396453216671944,
            "297": -1.026364803314209,
            "298": -0.27849081158638,
            "299": 0.48810869455337524,
            "300": 0.7836204767227173,
            "301": -0.1628452092409134,
            "302": -1.2650796175003052,
            "303": 0.0803866758942604,
            "304": -0.5201690196990967,
            "305": 0.5795665383338928,
            "306": 0.19757039844989777,
            "307": -0.4651104211807251,
            "308": -1.996278166770935,
            "309": -0.16319026052951813,
            "310": 0.3005543649196625,
            "311": 0.5757502317428589,
            "312": -0.8902580738067627,
            "313": -0.0913195088505745,
            "314": 0.09993980824947357,
            "315": 1.6695561408996582,
            "316": -1.252602458000183,
            "317": 0.3430991470813751,
            "318": -0.6451267004013062,
            "319": 0.5871527194976807,
            "320": -1.5071747303009033,
            "321": 2.0392799377441406,
            "322": 0.32812443375587463,
            "323": -0.4822916090488434,
            "324": -0.19194179773330688,
            "325": -1.169905662536621,
            "326": -0.2614884674549103,
            "327": -0.09302081912755966,
            "328": -0.5901749730110168,
            "329": -2.566441774368286,
            "330": 1.7284287214279175,
            "331": 0.24464881420135498,
            "332": -0.10718423873186111,
            "333": 1.1383646726608276,
            "334": 0.8013632893562317,
            "335": 0.34393754601478577,
            "336": 1.278404712677002,
            "337": -0.5831511616706848,
            "338": -0.1428256332874298,
            "339": -0.2795320749282837,
            "340": -0.5453328490257263,
            "341": 0.023105962201952934,
            "342": -0.43344423174858093,
            "343": 0.8632310032844543,
            "344": -0.44338226318359375,
            "345": -0.7642561197280884,
            "346": -0.9320324659347534,
            "347": 0.34427767992019653,
            "348": -0.125076562166214,
            "349": -1.8211973905563354,
            "350": -0.9619818925857544,
            "351": 1.029981255531311,
            "352": -2.511976957321167,
            "353": -0.545364260673523,
            "354": -0.04303457587957382,
            "355": -1.1700326204299927,
            "356": 0.7453830242156982,
            "357": 1.0660881996154785,
            "358": -0.8191714286804199,
            "359": 1.3176853656768799,
            "360": -0.7791432738304138,
            "361": 0.39653608202934265,
            "362": -0.3245967924594879,
            "363": -0.7880786657333374,
            "364": 1.4173047542572021,
            "365": 4.778120994567871,
            "366": -1.646907925605774,
            "367": -0.6577611565589905,
            "368": -0.18251542747020721,
            "369": 1.5563380718231201,
            "370": 1.218217372894287,
            "371": -3.1216366291046143,
            "372": -1.6986494064331055,
            "373": -1.42296302318573,
            "374": -1.1167969703674316,
            "375": -0.8978040814399719,
            "376": 0.15301674604415894,
            "377": 0.7140095233917236,
            "378": 0.06342466175556183,
            "379": 0.4751955568790436,
            "380": -2.435565710067749,
            "381": 0.3764137029647827,
            "382": 1.310603380203247,
            "383": -0.1418248862028122,
            "384": 1.3351939916610718,
            "385": 3.812633514404297,
            "386": -1.561518669128418,
            "387": 0.1691911369562149,
            "388": -0.14676633477210999,
            "389": 3.176525115966797,
            "390": -1.2333126068115234,
            "391": -1.4151946306228638,
            "392": 0.013431099243462086,
            "393": -4.039052963256836,
            "394": 0.20292441546916962,
            "395": 1.8114370107650757,
            "396": 1.3289614915847778,
            "397": 0.5463498830795288,
            "398": -3.9315311908721924,
            "399": -2.9972758293151855,
            "400": -2.0892510414123535,
            "401": 1.465897798538208,
            "402": -0.18960058689117432,
            "403": -0.472726434469223,
            "404": -3.330371379852295,
            "405": 0.809601366519928,
            "406": -0.13733269274234772,
            "407": 3.3583896160125732,
            "408": -5.088829517364502,
            "409": -0.5192683339118958,
            "410": -0.011834862641990185,
            "411": 4.825155258178711,
            "412": -2.058562755584717,
            "413": -1.1339305639266968,
            "414": 0.26067665219306946,
            "415": -0.0505620539188385,
            "416": 1.8792145252227783,
            "417": 0.2119896560907364,
            "418": -2.7767534255981445,
            "419": -0.25849372148513794,
            "420": -0.01563563197851181,
            "421": -2.5917062759399414,
            "422": 0.7419922947883606,
            "423": -1.4948060512542725,
            "424": -1.4428536891937256,
            "425": -0.9415236711502075,
            "426": -1.7663099765777588,
            "427": 1.8130236864089966,
            "428": -1.5148897171020508,
            "429": -2.9204905033111572,
            "430": -1.5412849187850952,
            "431": 2.7111456394195557,
            "432": 1.3266675472259521,
            "433": -2.0287656784057617,
            "434": -2.229058027267456,
            "435": 2.872004747390747,
            "436": 3.0861077308654785,
            "437": 0.12284087389707565,
            "438": 0.46231529116630554,
            "439": 1.870330810546875,
            "440": -2.7670538425445557,
            "441": -1.1480114459991455,
            "442": 1.4041507244110107,
            "443": 2.140855312347412,
            "444": 1.9300698041915894,
            "445": 0.022032367065548897,
            "446": -0.9736496806144714,
            "447": -0.16967913508415222,
            "448": 1.04170560836792,
            "449": -1.6883052587509155,
            "450": 1.5488395690917969,
            "451": -1.1005380153656006,
            "452": 0.5425909757614136,
            "453": 0.5057815909385681,
            "454": 1.9131298065185547,
            "455": 0.9329914450645447,
            "456": -0.05539428070187569,
            "457": 2.385385751724243,
            "458": -0.7937880754470825,
            "459": -1.0553573369979858,
            "460": -0.49774953722953796,
            "461": -1.6136902570724487,
            "462": 2.1491518020629883,
            "463": -4.339407444000244,
            "464": -0.428967148065567,
            "465": -0.28779661655426025,
            "466": 0.5843919515609741,
            "467": 0.9734938740730286,
            "468": 1.4190906286239624,
            "469": -1.3387466669082642,
            "470": 1.1325750350952148,
            "471": -1.384967565536499,
            "472": 1.3841543197631836,
            "473": 1.342657208442688,
            "474": 0.031063711270689964,
            "475": -1.7478199005126953,
            "476": 1.544142246246338,
            "477": 1.2177947759628296,
            "478": 1.195605993270874,
            "479": -0.7392467856407166,
            "480": -0.1817757785320282,
            "481": 0.11223204433917999,
            "482": 0.8313409686088562,
            "483": 1.8655986785888672,
            "484": -0.1601717621088028,
            "485": -0.5863622426986694,
            "486": 2.4875829219818115,
            "487": 0.736683189868927,
            "488": -1.7903424501419067,
            "489": 1.2740874290466309,
            "490": 0.8781059980392456,
            "491": -0.30627182126045227,
            "492": -1.9993054866790771,
            "493": 1.0086350440979004,
            "494": -1.4631344079971313,
            "495": 1.0139447450637817,
            "496": 1.1756526231765747,
            "497": 0.19721479713916779,
            "498": -0.018407760187983513,
            "499": -0.7992039322853088,
            "500": 2.2361319065093994,
            "501": -0.12241991609334946,
            "502": -0.19329054653644562,
            "503": 0.16437210142612457,
            "504": 2.361616849899292,
            "505": 0.30197206139564514,
            "506": -0.5869967341423035,
            "507": -1.8445382118225098,
            "508": 1.750822901725769,
            "509": -1.5725765228271484,
            "510": 0.8052864074707031,
            "511": -0.3896758556365967,
            "512": 0.24747374653816223,
            "513": -1.1177128553390503,
            "514": 0.06400654464960098,
            "515": 1.2188904285430908,
            "516": -0.7509250640869141,
            "517": 0.5647127032279968,
            "518": 0.6473175287246704,
            "519": 1.862304925918579,
            "520": -0.5692591071128845,
            "521": 2.665741205215454,
            "522": -0.9682517647743225,
            "523": -0.25801947712898254,
            "524": -1.623968243598938,
            "525": 0.28285160660743713,
            "526": -0.45923805236816406,
            "527": -1.7665470838546753,
            "528": -0.8286810517311096,
            "529": 1.0048400163650513,
            "530": 1.7409751415252686,
            "531": 0.7945114970207214,
            "532": 1.4595375061035156,
            "533": -2.4539170265197754,
            "534": -1.2292553186416626,
            "535": -1.2231003046035767,
            "536": 1.81128990650177,
            "537": 1.7328797578811646,
            "538": 0.8154994249343872,
            "539": -1.4372466802597046,
            "540": 0.3103714883327484,
            "541": 0.07639019936323166,
            "542": 1.733352780342102,
            "543": -0.7650966644287109,
            "544": -1.3663363456726074,
            "545": 0.5555636286735535,
            "546": -0.17736214399337769,
            "547": 1.1786164045333862,
            "548": 0.9580259323120117,
            "549": -0.6582542657852173,
            "550": -0.935405969619751,
            "551": -0.4009688198566437,
            "552": -0.6377012133598328,
            "553": -0.8430975675582886,
            "554": 0.4151094853878021,
            "555": 0.633897602558136,
            "556": -0.09293792396783829,
            "557": 2.023292303085327,
            "558": 1.4342445135116577,
            "559": -0.6440094113349915,
            "560": 0.8841971755027771,
            "561": -0.8360846042633057,
            "562": -0.7408570647239685,
            "563": -1.92894446849823,
            "564": -0.6524628400802612,
            "565": 0.2572063207626343,
            "566": 1.991529941558838,
            "567": -0.0464162677526474,
            "568": 2.396304130554199,
            "569": -0.19235140085220337,
            "570": -0.46806851029396057,
            "571": -2.279876708984375,
            "572": 0.3239131271839142,
            "573": -0.5283697247505188,
            "574": -0.1784420609474182,
            "575": 0.41520237922668457,
            "576": -1.4505807161331177,
            "577": 0.1541294902563095,
            "578": 1.074313759803772,
            "579": 0.21130679547786713,
            "580": -0.6241723299026489,
            "581": 0.11165156215429306,
            "582": -0.3457110822200775,
            "583": 0.535563588142395,
            "584": 0.7373387813568115,
            "585": -0.4710872173309326,
            "586": 0.32591646909713745,
            "587": -0.2875657379627228,
            "588": 0.7233733534812927,
            "589": 3.002210855484009,
            "590": 0.08033870905637741,
            "591": 3.380404472351074,
            "592": 0.509533166885376,
            "593": -0.583034098148346,
            "594": 1.0732001066207886,
            "595": -2.4298317432403564,
            "596": -0.9633549451828003,
            "597": -0.8710892200469971,
            "598": 0.033701058477163315,
            "599": -0.5310753583908081,
            "600": 2.846989393234253,
            "601": -0.6032912731170654,
            "602": 0.3395349383354187,
            "603": -2.6064040660858154,
            "604": -0.5834382176399231,
            "605": -1.0452765226364136,
            "606": -2.368501663208008,
            "607": -0.7705156803131104,
            "608": 2.8874151706695557,
            "609": -2.1296799182891846,
            "610": 1.907860517501831,
            "611": -0.6308450698852539,
            "612": 3.84494948387146,
            "613": -0.032285939902067184,
            "614": -1.5992462635040283,
            "615": -0.36559438705444336,
            "616": -0.9046608805656433,
            "617": 0.998892605304718,
            "618": 2.1792898178100586,
            "619": -4.016986846923828,
            "620": 0.16935504972934723,
            "621": 1.1968885660171509,
            "622": 1.033099889755249,
            "623": -0.44563159346580505,
            "624": 0.5168163776397705,
            "625": 3.3689112663269043,
            "626": -0.5478701591491699,
            "627": -0.9475053548812866,
            "628": -1.8518058061599731,
            "629": -1.6868962049484253,
            "630": 1.005597710609436,
            "631": -5.091563701629639,
            "632": 2.4027092456817627,
            "633": 2.060809850692749,
            "634": -2.883103609085083,
            "635": -2.9694650173187256,
            "636": 0.4898231029510498,
            "637": -1.2634289264678955,
            "638": 0.1495952010154724,
            "639": 2.88850474357605,
            "640": -0.6904484033584595,
            "641": -0.07572784274816513,
            "642": -0.5118772387504578,
            "643": -0.6500597596168518,
            "644": 0.24461771547794342,
            "645": -1.0481730699539185,
            "646": 0.615764319896698,
            "647": -0.8438850045204163,
            "648": -0.860554575920105,
            "649": -0.4953175485134125,
            "650": -2.467869758605957,
            "651": 1.0807136297225952,
            "652": 0.4095933139324188,
            "653": 0.174436554312706,
            "654": -1.200395107269287,
            "655": 2.3888590335845947,
            "656": 0.18320581316947937,
            "657": -1.8950709104537964,
            "658": -1.8916754722595215,
            "659": 0.11289356648921967,
            "660": 0.8642765879631042,
            "661": 0.6079776883125305,
            "662": 1.9261120557785034,
            "663": 0.5862303972244263,
            "664": -0.7104421854019165,
            "665": -1.6327015161514282,
            "666": 2.0745604038238525,
            "667": 0.2684709131717682,
            "668": -0.8241443037986755,
            "669": 0.8023771643638611,
            "670": -1.2733162641525269,
            "671": -2.026128053665161,
            "672": 5.338509559631348,
            "673": -4.6315531730651855,
            "674": 0.8594470024108887,
            "675": -5.143401145935059,
            "676": 11.016515731811523,
            "677": -5.53812837600708,
            "678": 4.970816612243652,
            "679": 2.8682637214660645,
            "680": -2.5604090690612793,
            "681": 4.929304599761963,
            "682": 5.379638671875,
            "683": -3.052220344543457,
            "684": -3.7721543312072754,
            "685": -5.387994766235352,
            "686": 0.8012636303901672,
            "687": 12.103520393371582,
            "688": 2.981368064880371,
            "689": -4.417394161224365,
            "690": -0.07128269225358963,
            "691": 7.34443473815918,
            "692": 3.137728452682495,
            "693": -1.4352290630340576,
            "694": -7.403001308441162,
            "695": -5.144979953765869,
            "696": 2.601914644241333,
            "697": -1.5275245904922485,
            "698": -3.036506175994873,
            "699": -2.4881746768951416,
            "700": 1.6252046823501587,
            "701": -5.652787208557129,
            "702": -5.159252643585205,
            "703": 4.03118896484375,
            "704": -1.483658790588379,
            "705": 1.9305047988891602,
            "706": -0.7213244438171387,
            "707": 2.7610373497009277,
            "708": -1.897559642791748,
            "709": 0.9384525418281555,
            "710": -0.527840256690979,
            "711": -1.0790804624557495,
            "712": 0.833217978477478,
            "713": -0.8776519298553467,
            "714": 0.2418248951435089,
            "715": -0.2892209589481354,
            "716": 1.2788561582565308,
            "717": 0.5028049349784851,
            "718": 1.5892597436904907,
            "719": -0.900811493396759,
            "720": -1.9468607902526855,
            "721": -0.5289844274520874,
            "722": -0.9506460428237915,
            "723": -0.587076723575592,
            "724": -2.0855393409729004,
            "725": 2.2947487831115723,
            "726": -1.729766845703125,
            "727": 1.4994629621505737,
            "728": -1.529253602027893,
            "729": 0.9158113598823547,
            "730": 1.2221736907958984,
            "731": 2.059857130050659,
            "732": -1.7824268341064453,
            "733": 0.05178946256637573,
            "734": 0.8673547506332397,
            "735": -1.4321147203445435,
            "736": -0.08977673947811127,
            "737": 2.1493260860443115,
            "738": -1.577509880065918,
            "739": -1.3378372192382812,
            "740": -0.868812620639801,
            "741": 4.395620822906494,
            "742": 0.20813649892807007,
            "743": -1.7797188758850098,
            "744": 1.8258363008499146,
            "745": -0.5573676228523254,
            "746": -0.9958326816558838,
            "747": 1.1897010803222656,
            "748": 3.962148666381836,
            "749": -0.4574190080165863,
            "750": -2.719082832336426,
            "751": 1.9348320960998535,
            "752": -2.9573729038238525,
            "753": 1.0089796781539917,
            "754": -0.8766482472419739,
            "755": 0.07295271754264832,
            "756": -3.4158401489257812,
            "757": 1.1314716339111328,
            "758": 1.5282750129699707,
            "759": 0.594778835773468,
            "760": -3.469308853149414,
            "761": -2.7508256435394287,
            "762": 1.7075777053833008,
            "763": 3.0496115684509277,
            "764": -3.2644917964935303,
            "765": 0.9635495543479919,
            "766": -2.2309443950653076,
            "767": -2.2792508602142334,
            "768": -0.9241551160812378,
            "769": 0.9048745036125183,
            "770": -2.2265288829803467,
            "771": 2.3184821605682373,
            "772": -0.8650872111320496,
            "773": 1.9981099367141724,
            "774": -3.2821805477142334,
            "775": -1.5898672342300415,
            "776": 3.166966199874878,
            "777": -1.411265254020691,
            "778": -1.6771206855773926,
            "779": -0.6244218349456787,
            "780": 1.477134108543396,
            "781": 0.2806093990802765,
            "782": 0.8926048874855042,
            "783": -0.7129776477813721,
            "784": -2.3114511966705322,
            "785": 0.6131547689437866,
            "786": -1.6383713483810425,
            "787": -0.2644679546356201,
            "788": -2.232882261276245,
            "789": 1.8104960918426514,
            "790": -2.286839008331299,
            "791": 1.376757264137268,
            "792": -1.4855232238769531,
            "793": -1.0547895431518555,
            "794": 1.6616491079330444,
            "795": 1.348673701286316,
            "796": -1.5654268264770508,
            "797": 2.1632773876190186,
            "798": 1.658751368522644,
            "799": -1.7686976194381714,
            "800": 1.906224012374878,
            "801": -2.909820556640625,
            "802": -0.5855830311775208,
            "803": 6.785806655883789,
            "804": -2.5945160388946533,
            "805": 5.736107349395752,
            "806": -2.5057077407836914,
            "807": 1.4500840902328491,
            "808": 3.220381259918213,
            "809": 1.0406160354614258,
            "810": -6.3933281898498535,
            "811": -5.812808513641357,
            "812": 2.4474639892578125,
            "813": -2.677152156829834,
            "814": -3.6643834114074707,
            "815": -5.322539329528809,
            "816": -5.686981678009033,
            "817": 3.6953907012939453,
            "818": 3.2607364654541016,
            "819": 1.2088490724563599,
            "820": -1.1051344871520996,
            "821": 0.14503243565559387,
            "822": -3.06335711479187,
            "823": -3.615976333618164,
            "824": 0.2762269377708435,
            "825": 7.166873931884766,
            "826": 4.980833053588867,
            "827": -0.5861244201660156,
            "828": -0.5555033087730408,
            "829": 4.297806739807129,
            "830": 6.258052825927734,
            "831": -4.7869648933410645,
            "832": -2.6533432006835938,
            "833": -1.2775253057479858,
            "834": -3.555626153945923,
            "835": 10.386539459228516,
            "836": -8.196454048156738,
            "837": 6.995082855224609,
            "838": -0.10835055261850357,
            "839": -0.16613370180130005,
            "840": 4.334250450134277,
            "841": 5.86833381652832,
            "842": -6.454432964324951,
            "843": 1.3606539964675903,
            "844": -0.5038326978683472,
            "845": 5.9545512199401855,
            "846": -1.4446214437484741,
            "847": -1.7985368967056274,
            "848": -6.596761226654053,
            "849": -0.42134013772010803,
            "850": -0.6948866248130798,
            "851": -7.308486461639404,
            "852": 0.10129439830780029,
            "853": -2.799694776535034,
            "854": 1.6263742446899414,
            "855": -0.3255451023578644,
            "856": 5.490727424621582,
            "857": -1.857252597808838,
            "858": 6.5080695152282715,
            "859": -5.649474143981934,
            "860": 2.419829845428467,
            "861": 9.180229187011719,
            "862": 2.2466723918914795,
            "863": -6.195601940155029,
            "864": -1.1638330221176147,
            "865": 4.362013816833496,
            "866": -2.9922635555267334,
            "867": -3.7470715045928955,
            "868": -0.3156849145889282,
            "869": -4.562089920043945,
            "870": 2.5955443382263184,
            "871": -3.898928165435791,
            "872": -6.583051681518555,
            "873": -4.507116317749023,
            "874": 0.2378063052892685,
            "875": 6.0507121086120605,
            "876": -1.9873067140579224,
            "877": -2.144577741622925,
            "878": -3.3740952014923096,
            "879": 6.419251441955566,
            "880": 2.680006504058838,
            "881": -6.925772190093994,
            "882": -4.825412750244141,
            "883": 1.653570294380188,
            "884": 4.739859580993652,
            "885": 2.595536708831787,
            "886": 4.913857460021973,
            "887": 6.354968070983887,
            "888": -5.559932231903076,
            "889": -6.071725845336914,
            "890": -0.37606149911880493,
            "891": 5.239524841308594,
            "892": 2.0700936317443848,
            "893": -0.43121880292892456,
            "894": -4.825655937194824,
            "895": 3.0791265964508057,
            "896": -4.730847358703613,
            "897": 4.863492488861084,
            "898": 3.9149742126464844,
            "899": -7.952889442443848,
            "900": -1.3087157011032104,
            "901": -0.15642300248146057,
            "902": -5.914270401000977,
            "903": 2.161931276321411,
            "904": -0.20009836554527283,
            "905": -8.987885475158691,
            "906": 2.727184534072876,
            "907": 5.285794258117676,
            "908": 6.1367268562316895,
            "909": 6.052776336669922,
            "910": 1.4269722700119019,
            "911": 1.8904716968536377,
            "912": -0.7570719122886658,
            "913": -0.4495124816894531,
            "914": -0.19214372336864471,
            "915": -4.582298278808594,
            "916": -6.764286994934082,
            "917": -4.314864158630371,
            "918": 1.2083649635314941,
            "919": 3.200122594833374,
            "920": -3.8638758659362793,
            "921": -11.848129272460938,
            "922": -1.182511329650879,
            "923": 1.6179763078689575,
            "924": -8.460536003112793,
            "925": 1.8264946937561035,
            "926": -7.713240623474121,
            "927": 3.204834461212158,
            "928": 5.013777732849121,
            "929": -4.230842113494873,
            "930": -0.8785176873207092,
            "931": -2.4886505603790283,
            "932": 4.475809097290039,
            "933": -2.6184487342834473,
            "934": 4.162906646728516,
            "935": -1.046886920928955,
            "936": -2.5317351818084717,
            "937": 5.8264079093933105,
            "938": 2.736252546310425,
            "939": -4.41178560256958,
            "940": -3.844017505645752,
            "941": -4.216450214385986,
            "942": -2.8698904514312744,
            "943": 7.90894079208374,
            "944": 2.888782501220703,
            "945": -1.668955683708191,
            "946": -0.6459730863571167,
            "947": 4.19566011428833,
            "948": 2.521685838699341,
            "949": -4.278487682342529,
            "950": -3.1153151988983154,
            "951": -4.112277507781982,
            "952": 4.262218952178955,
            "953": -1.3785732984542847,
            "954": -4.063384056091309,
            "955": -5.020670413970947,
            "956": 3.358361005783081,
            "957": -4.926117420196533,
            "958": 1.2120516300201416,
            "959": 4.897397041320801,
            "960": -0.7372596263885498,
            "961": 2.1040985584259033,
            "962": 1.29171884059906,
            "963": 0.3579114079475403,
            "964": -2.21632719039917,
            "965": 0.488248348236084,
            "966": -0.16147097945213318,
            "967": 0.3577724099159241,
            "968": -0.3398032486438751,
            "969": -3.319744825363159,
            "970": 0.8224712014198303,
            "971": 1.2577705383300781,
            "972": -0.1583045870065689,
            "973": 0.6551817059516907,
            "974": 0.2156444936990738,
            "975": 0.3455488085746765,
            "976": 1.0644608736038208,
            "977": 0.17610102891921997,
            "978": 1.0581861734390259,
            "979": -0.8524525761604309,
            "980": -0.24241724610328674,
            "981": -1.7656337022781372,
            "982": -0.5330307483673096,
            "983": 1.5580289363861084,
            "984": -0.8917540311813354,
            "985": -2.1834609508514404,
            "986": -0.46962404251098633,
            "987": 1.6810554265975952,
            "988": -0.19560489058494568,
            "989": -1.3280706405639648,
            "990": -1.809375524520874,
            "991": 1.2403472661972046,
            "992": -1.0737767219543457,
            "993": 0.20528410375118256,
            "994": -0.2603985667228699,
            "995": 0.27624043822288513,
            "996": -1.1286797523498535,
            "997": 1.6155985593795776,
            "998": -0.5908474922180176,
            "999": -0.3585823178291321,
            "1000": 1.1543145179748535,
            "1001": 0.5776697397232056,
            "1002": -0.982239305973053,
            "1003": 0.4465268850326538,
            "1004": 0.6296577453613281,
            "1005": 1.461793303489685,
            "1006": -0.16387882828712463,
            "1007": -0.06623396277427673,
            "1008": -1.5111685991287231,
            "1009": -0.013277030549943447,
            "1010": -0.33176907896995544,
            "1011": -1.2171828746795654,
            "1012": -1.0156285762786865,
            "1013": 0.15437716245651245,
            "1014": 0.05025346949696541,
            "1015": -0.08041547983884811,
            "1016": 0.42802467942237854,
            "1017": 0.03352789953351021,
            "1018": 1.2545562982559204,
            "1019": -0.03052634745836258,
            "1020": -1.059537649154663,
            "1021": 0.9048300385475159,
            "1022": 0.14262701570987701,
            "1023": -1.1952860355377197,
            "1024": 0.01334568951278925,
            "1025": 0.06270123273134232,
            "1026": 0.060008518397808075,
            "1027": -0.01343658845871687,
            "1028": -0.050857823342084885,
            "1029": 0.026614103466272354,
            "1030": -0.01834370754659176,
            "1031": -0.04030006378889084,
            "1032": -0.05299946293234825,
            "1033": 0.022227700799703598,
            "1034": -0.007283310405910015,
            "1035": 0.03646573796868324,
            "1036": -0.03106340765953064,
            "1037": 0.0764799639582634,
            "1038": 0.06460202485322952,
            "1039": -0.000014643544091086369,
            "1040": -0.04619147628545761,
            "1041": -0.006092659663408995,
            "1042": -0.006305993534624577,
            "1043": -0.030506160110235214,
            "1044": -0.04628383368253708,
            "1045": -0.037311241030693054,
            "1046": -0.022605549544095993,
            "1047": 0.0394323356449604,
            "1048": -0.060318704694509506,
            "1049": 0.007669325452297926,
            "1050": 0.0352909117937088,
            "1051": -0.011105484329164028,
            "1052": -0.033219583332538605,
            "1053": 0.053752120584249496,
            "1054": 0.0657065138220787,
            "1055": 0.017901495099067688
        }
    },
    "hiddenLayers": [
        {
            "inputMatrix": {
                "rows": 20,
                "columns": 32,
                "weights": {
                    "0": 0.8641949892044067,
                    "1": -0.41144558787345886,
                    "2": -0.28000304102897644,
                    "3": -1.1670702695846558,
                    "4": 0.4372166097164154,
                    "5": 0.039886556565761566,
                    "6": 3.222445011138916,
                    "7": -0.2600363790988922,
                    "8": 0.39425739645957947,
                    "9": 1.423814296722412,
                    "10": -0.23699507117271423,
                    "11": -0.061439890414476395,
                    "12": -0.7102508544921875,
                    "13": -0.8213802576065063,
                    "14": -0.3166236877441406,
                    "15": 1.0026557445526123,
                    "16": -0.08615692704916,
                    "17": -0.7859194874763489,
                    "18": -0.16565550863742828,
                    "19": 1.5186526775360107,
                    "20": 1.8891210556030273,
                    "21": 0.4081769585609436,
                    "22": 0.5021938681602478,
                    "23": -0.0511527881026268,
                    "24": -0.8936364054679871,
                    "25": -0.9370477795600891,
                    "26": 0.6650367975234985,
                    "27": 0.2733170688152313,
                    "28": 0.9301446676254272,
                    "29": -0.209866464138031,
                    "30": -0.5267223715782166,
                    "31": -1.818825602531433,
                    "32": 0.2848588824272156,
                    "33": -1.2812870740890503,
                    "34": -0.04406369850039482,
                    "35": 1.1523686647415161,
                    "36": 1.0603618621826172,
                    "37": -0.0914015918970108,
                    "38": -0.04723780229687691,
                    "39": 0.6530839204788208,
                    "40": -0.1478586196899414,
                    "41": 1.18815279006958,
                    "42": 0.2839418649673462,
                    "43": -0.6938918828964233,
                    "44": -0.36054617166519165,
                    "45": 0.023418467491865158,
                    "46": 0.10009004175662994,
                    "47": -0.5626225471496582,
                    "48": 0.18111638724803925,
                    "49": 0.4114398658275604,
                    "50": 0.23595060408115387,
                    "51": -0.713282585144043,
                    "52": 0.08773946017026901,
                    "53": -0.34054961800575256,
                    "54": 0.6030296683311462,
                    "55": -1.6806511878967285,
                    "56": 1.4835700988769531,
                    "57": 0.6199989914894104,
                    "58": -0.5592154264450073,
                    "59": -1.4629137516021729,
                    "60": 0.693326473236084,
                    "61": -0.25645679235458374,
                    "62": 0.29787206649780273,
                    "63": 0.28096693754196167,
                    "64": 1.523065209388733,
                    "65": -0.5987633466720581,
                    "66": -0.28197890520095825,
                    "67": 0.9223058223724365,
                    "68": -0.2927376925945282,
                    "69": 1.110425353050232,
                    "70": 0.24115866422653198,
                    "71": -0.566454291343689,
                    "72": 2.0766348838806152,
                    "73": 1.374709963798523,
                    "74": -1.9880352020263672,
                    "75": -0.3915405869483948,
                    "76": -0.28266775608062744,
                    "77": -1.2370123863220215,
                    "78": -0.4610208570957184,
                    "79": -0.640399694442749,
                    "80": -1.0576660633087158,
                    "81": 0.5499258041381836,
                    "82": 0.10257528722286224,
                    "83": 0.9412660002708435,
                    "84": 0.09664955735206604,
                    "85": 0.8780120611190796,
                    "86": 0.49993816018104553,
                    "87": -0.13248716294765472,
                    "88": -0.2625161111354828,
                    "89": 0.6941280364990234,
                    "90": 1.6758968830108643,
                    "91": 0.30998867750167847,
                    "92": 0.6556923985481262,
                    "93": 1.353081464767456,
                    "94": 0.8233203887939453,
                    "95": -2.0721452236175537,
                    "96": -0.709492027759552,
                    "97": 0.5132321715354919,
                    "98": 1.4877599477767944,
                    "99": 0.24063536524772644,
                    "100": -0.2210025191307068,
                    "101": -0.7833516001701355,
                    "102": 0.5776957869529724,
                    "103": 0.18940111994743347,
                    "104": 0.6337565779685974,
                    "105": -1.000991702079773,
                    "106": 0.6256590485572815,
                    "107": -0.36606666445732117,
                    "108": -0.5905101895332336,
                    "109": 1.0573678016662598,
                    "110": 0.1910550892353058,
                    "111": 0.8655948042869568,
                    "112": 1.2648944854736328,
                    "113": -0.6171861290931702,
                    "114": 0.2525341510772705,
                    "115": -1.1186772584915161,
                    "116": -0.14236138761043549,
                    "117": -0.35177522897720337,
                    "118": -0.141311377286911,
                    "119": 0.5098249912261963,
                    "120": 0.5121796727180481,
                    "121": -0.8108604550361633,
                    "122": -0.41012611985206604,
                    "123": -0.4875587224960327,
                    "124": 0.4351302683353424,
                    "125": -1.4396589994430542,
                    "126": -1.5922727584838867,
                    "127": 1.0648304224014282,
                    "128": 1.6208115816116333,
                    "129": -1.6547678709030151,
                    "130": -0.4270569682121277,
                    "131": -0.08726236969232559,
                    "132": 0.4472825527191162,
                    "133": 0.13334773480892181,
                    "134": 2.4096908569335938,
                    "135": 1.675818920135498,
                    "136": -0.5920467972755432,
                    "137": 1.7013026475906372,
                    "138": -0.31780511140823364,
                    "139": 0.2213466465473175,
                    "140": -1.5276018381118774,
                    "141": -0.34149909019470215,
                    "142": -1.7986642122268677,
                    "143": 0.03818656504154205,
                    "144": 0.4618980288505554,
                    "145": 0.6524837613105774,
                    "146": 1.1538150310516357,
                    "147": 0.6109975576400757,
                    "148": 1.8857067823410034,
                    "149": -0.17190061509609222,
                    "150": 0.812412679195404,
                    "151": 0.061616573482751846,
                    "152": 1.2225937843322754,
                    "153": 0.38178449869155884,
                    "154": 0.02577248215675354,
                    "155": -0.8220681548118591,
                    "156": 2.3540804386138916,
                    "157": 0.28007617592811584,
                    "158": -0.3150952458381653,
                    "159": 0.09949556738138199,
                    "160": -0.9151306748390198,
                    "161": -0.9637000560760498,
                    "162": 1.1428816318511963,
                    "163": 0.46813276410102844,
                    "164": -0.47064247727394104,
                    "165": -0.529547393321991,
                    "166": 0.3340696394443512,
                    "167": 1.448891520500183,
                    "168": -0.3784627318382263,
                    "169": 2.1636719703674316,
                    "170": -0.27175888419151306,
                    "171": -0.7618110775947571,
                    "172": 0.8684490919113159,
                    "173": 0.4993051588535309,
                    "174": -0.669579267501831,
                    "175": 1.044984221458435,
                    "176": 0.11588088423013687,
                    "177": -0.6891955137252808,
                    "178": 1.0119003057479858,
                    "179": -0.6780564785003662,
                    "180": 0.5747078657150269,
                    "181": -0.8680660724639893,
                    "182": 0.6501444578170776,
                    "183": -1.2947354316711426,
                    "184": 0.8504152894020081,
                    "185": 0.944463849067688,
                    "186": 0.8160661458969116,
                    "187": -0.6667621731758118,
                    "188": -0.7590782046318054,
                    "189": 0.7790080308914185,
                    "190": 0.05933317542076111,
                    "191": -0.9117138385772705,
                    "192": -0.02527298592031002,
                    "193": 0.04985018074512482,
                    "194": 0.3257429599761963,
                    "195": 0.4700898826122284,
                    "196": -0.957319438457489,
                    "197": 1.665753722190857,
                    "198": -0.13633987307548523,
                    "199": 0.03522691875696182,
                    "200": 1.98829185962677,
                    "201": 0.24711045622825623,
                    "202": -1.2903157472610474,
                    "203": -0.0963345468044281,
                    "204": 0.4545069634914398,
                    "205": -0.6303728818893433,
                    "206": -0.11276190727949142,
                    "207": -1.3351589441299438,
                    "208": -1.5817402601242065,
                    "209": 1.0591436624526978,
                    "210": 0.4567753076553345,
                    "211": 0.772936999797821,
                    "212": -0.5853233337402344,
                    "213": 0.23104920983314514,
                    "214": -0.23105110228061676,
                    "215": 0.10269420593976974,
                    "216": -0.6452071666717529,
                    "217": 0.2582698166370392,
                    "218": 1.3398720026016235,
                    "219": 0.5264243483543396,
                    "220": -0.35648706555366516,
                    "221": 1.136069416999817,
                    "222": 0.6972604393959045,
                    "223": -1.682471513748169,
                    "224": 0.16224059462547302,
                    "225": 0.31475159525871277,
                    "226": -0.05032739043235779,
                    "227": -1.3725507259368896,
                    "228": 0.6288666725158691,
                    "229": -0.5548322200775146,
                    "230": 0.34859633445739746,
                    "231": -0.8932650089263916,
                    "232": -0.04589613899588585,
                    "233": -0.12223394960165024,
                    "234": -0.002231413731351495,
                    "235": -0.03125316649675369,
                    "236": -0.2299964427947998,
                    "237": -0.9492028951644897,
                    "238": -0.00018529589578974992,
                    "239": 0.9513919353485107,
                    "240": 0.13033835589885712,
                    "241": -0.3982628881931305,
                    "242": -0.8033913373947144,
                    "243": 1.5777587890625,
                    "244": 0.27215778827667236,
                    "245": 1.1923003196716309,
                    "246": -0.3429710268974304,
                    "247": 0.8185058832168579,
                    "248": -1.6482809782028198,
                    "249": -0.33647146821022034,
                    "250": 0.19692380726337433,
                    "251": 1.5375380516052246,
                    "252": -0.10410221666097641,
                    "253": -0.11025724560022354,
                    "254": -0.32722172141075134,
                    "255": -0.04129982367157936,
                    "256": -0.5369112491607666,
                    "257": 1.4881892204284668,
                    "258": 0.46416527032852173,
                    "259": -0.8654339909553528,
                    "260": -0.771151065826416,
                    "261": -0.02782505191862583,
                    "262": 0.42562922835350037,
                    "263": -0.6744278073310852,
                    "264": -0.2059355527162552,
                    "265": -1.441834807395935,
                    "266": 0.030355365946888924,
                    "267": 1.0831419229507446,
                    "268": -0.22458195686340332,
                    "269": -0.5478883981704712,
                    "270": 0.3539268672466278,
                    "271": 0.019954662770032883,
                    "272": 0.26739054918289185,
                    "273": -0.7000632882118225,
                    "274": -0.42960625886917114,
                    "275": 1.053938865661621,
                    "276": 0.30735811591148376,
                    "277": 0.18074330687522888,
                    "278": -0.4622951149940491,
                    "279": 2.0519165992736816,
                    "280": -2.4908101558685303,
                    "281": -0.7683595418930054,
                    "282": -0.16934198141098022,
                    "283": 2.585968494415283,
                    "284": -0.7305025458335876,
                    "285": -0.03456514701247215,
                    "286": -0.8237272500991821,
                    "287": 0.3648325204849243,
                    "288": 0.6023743152618408,
                    "289": 0.6774898767471313,
                    "290": -0.9010247588157654,
                    "291": -0.34661436080932617,
                    "292": 3.2138760089874268,
                    "293": -1.6255180835723877,
                    "294": 1.0974200963974,
                    "295": -0.7221243381500244,
                    "296": -1.8109771013259888,
                    "297": 0.15657185018062592,
                    "298": 0.768347978591919,
                    "299": 0.12792935967445374,
                    "300": -1.300766944885254,
                    "301": -0.5492174029350281,
                    "302": 0.13572601974010468,
                    "303": -0.12550851702690125,
                    "304": 1.0011582374572754,
                    "305": 0.4006304144859314,
                    "306": -0.668363630771637,
                    "307": 0.9616763591766357,
                    "308": 0.3930340111255646,
                    "309": 0.3248046338558197,
                    "310": 0.3978385925292969,
                    "311": -0.12305048853158951,
                    "312": 0.8434765934944153,
                    "313": 0.49042874574661255,
                    "314": -1.2056186199188232,
                    "315": -1.0583823919296265,
                    "316": 1.324508786201477,
                    "317": -1.3306715488433838,
                    "318": 0.2614412307739258,
                    "319": 1.0049688816070557,
                    "320": 0.10023441165685654,
                    "321": 0.16292788088321686,
                    "322": 0.07757455855607986,
                    "323": -0.4043863117694855,
                    "324": 0.16466839611530304,
                    "325": -0.8577393889427185,
                    "326": 1.4401030540466309,
                    "327": -0.05878328159451485,
                    "328": -1.0860565900802612,
                    "329": 0.5177894830703735,
                    "330": -0.2349136769771576,
                    "331": 0.42026546597480774,
                    "332": -0.29960331320762634,
                    "333": -0.810110330581665,
                    "334": -1.4216625690460205,
                    "335": 1.532614827156067,
                    "336": 0.30389463901519775,
                    "337": 0.4160771667957306,
                    "338": 0.3962167203426361,
                    "339": 1.1585023403167725,
                    "340": 1.6258004903793335,
                    "341": 0.34816986322402954,
                    "342": -0.5962274670600891,
                    "343": 0.5440191030502319,
                    "344": -0.653364896774292,
                    "345": -0.693673849105835,
                    "346": 0.31337863206863403,
                    "347": 0.5447503328323364,
                    "348": 0.14720918238162994,
                    "349": -0.3334285318851471,
                    "350": -0.5732870697975159,
                    "351": -0.25228920578956604,
                    "352": 0.07582158595323563,
                    "353": 0.06204070523381233,
                    "354": 0.02911900170147419,
                    "355": 1.0701487064361572,
                    "356": -2.1293015480041504,
                    "357": 1.7348613739013672,
                    "358": -1.1874901056289673,
                    "359": 0.5255468487739563,
                    "360": 1.4522502422332764,
                    "361": -0.04287542402744293,
                    "362": -0.9409440159797668,
                    "363": -0.3503490686416626,
                    "364": 0.38917139172554016,
                    "365": -0.7197964787483215,
                    "366": -0.22383487224578857,
                    "367": -1.5202693939208984,
                    "368": -1.503889799118042,
                    "369": 0.8994738459587097,
                    "370": 0.5245304703712463,
                    "371": -0.0352674275636673,
                    "372": -1.5328614711761475,
                    "373": -0.5969810485839844,
                    "374": -1.2224178314208984,
                    "375": 0.11396319419145584,
                    "376": -0.781994104385376,
                    "377": -0.09801071137189865,
                    "378": 1.1090775728225708,
                    "379": 0.6238659024238586,
                    "380": -0.61130690574646,
                    "381": 1.005387783050537,
                    "382": 1.1813026666641235,
                    "383": -0.622053861618042,
                    "384": -0.028018463402986526,
                    "385": -0.15267448127269745,
                    "386": -0.6235274076461792,
                    "387": 0.5817821621894836,
                    "388": -0.19459372758865356,
                    "389": 0.9201734066009521,
                    "390": 0.15446887910366058,
                    "391": 0.5260717868804932,
                    "392": 0.9059375524520874,
                    "393": 0.49777254462242126,
                    "394": -1.7269227504730225,
                    "395": -0.07233797013759613,
                    "396": -0.44684040546417236,
                    "397": 0.8034913539886475,
                    "398": -1.1208711862564087,
                    "399": -1.1487927436828613,
                    "400": -1.0316728353500366,
                    "401": -0.19279134273529053,
                    "402": -0.6183587908744812,
                    "403": -0.27931681275367737,
                    "404": -0.43828895688056946,
                    "405": -0.16469267010688782,
                    "406": 0.7199630737304688,
                    "407": 0.6851770281791687,
                    "408": -0.5770727396011353,
                    "409": 0.2160860300064087,
                    "410": 0.6293954253196716,
                    "411": 0.6614959239959717,
                    "412": 0.35920363664627075,
                    "413": 1.079533338546753,
                    "414": 0.9093957543373108,
                    "415": -1.7018522024154663,
                    "416": 0.3731328547000885,
                    "417": -1.4190316200256348,
                    "418": 0.47901651263237,
                    "419": -0.9857075214385986,
                    "420": 0.41194280982017517,
                    "421": 0.9298359751701355,
                    "422": 1.6262544393539429,
                    "423": 2.0143883228302,
                    "424": -0.26952314376831055,
                    "425": 2.5963099002838135,
                    "426": -0.16601549088954926,
                    "427": -0.2718505263328552,
                    "428": -0.06237420439720154,
                    "429": -0.0814722552895546,
                    "430": -0.656643271446228,
                    "431": -0.14401304721832275,
                    "432": -0.13505183160305023,
                    "433": 0.725199282169342,
                    "434": 1.5940666198730469,
                    "435": 0.019154109060764313,
                    "436": 0.9622694253921509,
                    "437": -0.9979122281074524,
                    "438": 0.44639718532562256,
                    "439": -0.9268811941146851,
                    "440": 1.0670288801193237,
                    "441": 0.746097981929779,
                    "442": -0.3394983410835266,
                    "443": -0.5379953980445862,
                    "444": 0.6159846186637878,
                    "445": -0.2659050226211548,
                    "446": -1.1252129077911377,
                    "447": -0.2510019838809967,
                    "448": 1.2173893451690674,
                    "449": 0.4444987177848816,
                    "450": -0.7977520227432251,
                    "451": -0.3122871518135071,
                    "452": 1.6918015480041504,
                    "453": -1.613813042640686,
                    "454": 0.4328638017177582,
                    "455": -0.5960507988929749,
                    "456": -1.9342254400253296,
                    "457": -0.5172946453094482,
                    "458": 1.8303323984146118,
                    "459": 0.6933634877204895,
                    "460": -1.0275956392288208,
                    "461": -0.7657009959220886,
                    "462": -1.7972198724746704,
                    "463": 0.6099511384963989,
                    "464": 1.4269204139709473,
                    "465": 0.7366752028465271,
                    "466": 0.3465518653392792,
                    "467": 0.7188755869865417,
                    "468": 0.49778813123703003,
                    "469": 0.9384198784828186,
                    "470": -0.09834597259759903,
                    "471": 0.37150776386260986,
                    "472": -0.5449438095092773,
                    "473": -0.1005522832274437,
                    "474": -1.4883495569229126,
                    "475": 0.9944876432418823,
                    "476": 0.5806055068969727,
                    "477": -1.8796058893203735,
                    "478": -0.9805713295936584,
                    "479": 1.433793306350708,
                    "480": -0.5372725129127502,
                    "481": -0.952301025390625,
                    "482": -0.49195396900177,
                    "483": 0.3181111812591553,
                    "484": 0.20814299583435059,
                    "485": 0.7043731808662415,
                    "486": -0.5099128484725952,
                    "487": 1.648376226425171,
                    "488": -1.0460994243621826,
                    "489": 1.6108912229537964,
                    "490": 1.0898185968399048,
                    "491": 0.4475378096103668,
                    "492": -0.5766561627388,
                    "493": 1.3549814224243164,
                    "494": -1.0291134119033813,
                    "495": 1.7726707458496094,
                    "496": 0.13412103056907654,
                    "497": -0.6026243567466736,
                    "498": 0.8434081673622131,
                    "499": -1.3078949451446533,
                    "500": -0.5318520069122314,
                    "501": -1.1580166816711426,
                    "502": 0.6029888987541199,
                    "503": -0.7219604253768921,
                    "504": 1.072619080543518,
                    "505": -0.6277134418487549,
                    "506": -0.9901950359344482,
                    "507": -0.5912270545959473,
                    "508": -0.041725631803274155,
                    "509": -0.5822305083274841,
                    "510": -0.2349017858505249,
                    "511": 1.273074984550476,
                    "512": 0.11121642589569092,
                    "513": -1.3038972616195679,
                    "514": 1.384361743927002,
                    "515": 0.40142154693603516,
                    "516": -0.8439980745315552,
                    "517": 1.0481747388839722,
                    "518": 0.3177737891674042,
                    "519": 0.8694409728050232,
                    "520": -0.2622259259223938,
                    "521": 1.399518609046936,
                    "522": 0.24263890087604523,
                    "523": -1.0264508724212646,
                    "524": -0.36880502104759216,
                    "525": 0.35277608036994934,
                    "526": 0.012196186929941177,
                    "527": -2.015475034713745,
                    "528": -0.5472974181175232,
                    "529": 1.4633699655532837,
                    "530": 0.6730886697769165,
                    "531": -0.6122621893882751,
                    "532": 0.3779096305370331,
                    "533": -0.04923147335648537,
                    "534": -0.6123672723770142,
                    "535": -0.18542860448360443,
                    "536": 0.01508848462253809,
                    "537": 0.6769501566886902,
                    "538": 0.22707384824752808,
                    "539": 0.5115756988525391,
                    "540": 0.42169633507728577,
                    "541": 0.9852885603904724,
                    "542": 1.5394983291625977,
                    "543": -0.6448190808296204,
                    "544": -0.341313898563385,
                    "545": 0.42303740978240967,
                    "546": 0.9794821739196777,
                    "547": 0.31901025772094727,
                    "548": -0.02087610960006714,
                    "549": 0.16347377002239227,
                    "550": -0.5484237670898438,
                    "551": 0.15889792144298553,
                    "552": -1.6402841806411743,
                    "553": -0.9398130178451538,
                    "554": 2.7615914344787598,
                    "555": 0.053012263029813766,
                    "556": -0.33709999918937683,
                    "557": 1.6280272006988525,
                    "558": 0.4503783583641052,
                    "559": -0.16682468354701996,
                    "560": 0.3134532868862152,
                    "561": -0.3678131401538849,
                    "562": 0.1687006652355194,
                    "563": -1.450725793838501,
                    "564": -0.510107696056366,
                    "565": 0.40079841017723083,
                    "566": -0.5503308176994324,
                    "567": 0.7290893197059631,
                    "568": -0.16368912160396576,
                    "569": 0.17838221788406372,
                    "570": -1.8468481302261353,
                    "571": 0.5065710544586182,
                    "572": 0.22546525299549103,
                    "573": -1.2015299797058105,
                    "574": 0.06884302198886871,
                    "575": 1.5965585708618164,
                    "576": 0.6325703263282776,
                    "577": 0.2690531313419342,
                    "578": -0.26515716314315796,
                    "579": -0.3862597346305847,
                    "580": -1.029349684715271,
                    "581": 0.49689286947250366,
                    "582": 0.10790656507015228,
                    "583": -0.9169124364852905,
                    "584": 0.9239994287490845,
                    "585": -0.028766080737113953,
                    "586": -1.299130916595459,
                    "587": 0.23916743695735931,
                    "588": 0.23810379207134247,
                    "589": -1.0680011510849,
                    "590": 0.5246044993400574,
                    "591": -0.855361819267273,
                    "592": -0.9427189230918884,
                    "593": -1.425826072692871,
                    "594": -1.7964297533035278,
                    "595": 0.747983455657959,
                    "596": 0.17650800943374634,
                    "597": 1.1715949773788452,
                    "598": -0.20752905309200287,
                    "599": 0.9072044491767883,
                    "600": -1.5632318258285522,
                    "601": -0.1321621835231781,
                    "602": 1.2375560998916626,
                    "603": 1.270709753036499,
                    "604": 0.5758141279220581,
                    "605": 1.7177667617797852,
                    "606": 0.9390068650245667,
                    "607": -1.3117575645446777,
                    "608": -0.10632408410310745,
                    "609": -0.15892943739891052,
                    "610": 0.04016073793172836,
                    "611": -0.01935705542564392,
                    "612": -1.6739788055419922,
                    "613": 1.6030747890472412,
                    "614": -1.806147813796997,
                    "615": 0.1370374709367752,
                    "616": 1.1131757497787476,
                    "617": -0.44232043623924255,
                    "618": -0.7298225164413452,
                    "619": -0.1680939793586731,
                    "620": 0.5683447122573853,
                    "621": -0.22160355746746063,
                    "622": -0.27388110756874084,
                    "623": -0.9756097197532654,
                    "624": -0.879984974861145,
                    "625": 0.11459926515817642,
                    "626": 0.18893513083457947,
                    "627": -0.45222747325897217,
                    "628": -1.5050222873687744,
                    "629": 0.28632739186286926,
                    "630": -0.5938359498977661,
                    "631": -0.3677598834037781,
                    "632": -0.8342730402946472,
                    "633": 0.27351561188697815,
                    "634": 0.4450666010379791,
                    "635": 1.326341986656189,
                    "636": -0.5111429691314697,
                    "637": 0.6596152782440186,
                    "638": 0.5498726963996887,
                    "639": -0.26679113507270813
                }
            },
            "inputHidden": {
                "rows": 20,
                "columns": 20,
                "weights": {
                    "0": -0.7168191075325012,
                    "1": -1.0814753770828247,
                    "2": -0.8504727482795715,
                    "3": 0.41458261013031006,
                    "4": 0.681158185005188,
                    "5": -0.7293383479118347,
                    "6": 0.24024811387062073,
                    "7": 1.631258487701416,
                    "8": -1.2477952241897583,
                    "9": -0.14905990660190582,
                    "10": -0.4229164719581604,
                    "11": -1.2828162908554077,
                    "12": -1.5243984460830688,
                    "13": -1.0409188270568848,
                    "14": -0.7811099290847778,
                    "15": 0.45331498980522156,
                    "16": 1.8392958641052246,
                    "17": -0.22274726629257202,
                    "18": -0.43845221400260925,
                    "19": -0.32791733741760254,
                    "20": -0.9441741108894348,
                    "21": -1.4689488410949707,
                    "22": -0.28556710481643677,
                    "23": 0.7322511672973633,
                    "24": -0.5485450029373169,
                    "25": 0.6183202862739563,
                    "26": -1.6219124794006348,
                    "27": -0.7344349026679993,
                    "28": 2.144407272338867,
                    "29": -1.323210597038269,
                    "30": 1.0560047626495361,
                    "31": 2.063265562057495,
                    "32": 0.11180620640516281,
                    "33": -1.842847228050232,
                    "34": -1.4035006761550903,
                    "35": 1.046783685684204,
                    "36": 2.885890483856201,
                    "37": 1.6833244562149048,
                    "38": -0.6947950720787048,
                    "39": -1.6911522150039673,
                    "40": -0.945762038230896,
                    "41": 0.6870704889297485,
                    "42": 1.3495887517929077,
                    "43": 1.2981492280960083,
                    "44": -0.46611663699150085,
                    "45": -2.6243886947631836,
                    "46": 1.3214061260223389,
                    "47": 1.0398906469345093,
                    "48": 0.42091086506843567,
                    "49": 0.6598365306854248,
                    "50": 0.5704377293586731,
                    "51": -1.2699882984161377,
                    "52": 2.3443427085876465,
                    "53": -2.9566478729248047,
                    "54": -0.9858293533325195,
                    "55": -0.6843203902244568,
                    "56": -2.2998411655426025,
                    "57": -1.5992345809936523,
                    "58": -0.8001793622970581,
                    "59": 0.37946683168411255,
                    "60": -1.8368161916732788,
                    "61": 0.7891310453414917,
                    "62": 0.8985705971717834,
                    "63": 0.3460926413536072,
                    "64": -0.4075862765312195,
                    "65": 0.8345257639884949,
                    "66": 1.5519726276397705,
                    "67": 2.9767816066741943,
                    "68": 2.035900115966797,
                    "69": -1.838855266571045,
                    "70": 0.5039511919021606,
                    "71": -0.6625763773918152,
                    "72": -0.037812333554029465,
                    "73": -1.9344135522842407,
                    "74": 0.3340305685997009,
                    "75": 2.8374154567718506,
                    "76": 1.3057724237442017,
                    "77": -0.6185830235481262,
                    "78": 0.7066369652748108,
                    "79": -0.926429808139801,
                    "80": 0.36995893716812134,
                    "81": 1.8881714344024658,
                    "82": 0.5441200733184814,
                    "83": 1.0798053741455078,
                    "84": 1.2766534090042114,
                    "85": -0.4701300859451294,
                    "86": -1.3620315790176392,
                    "87": -0.1390296220779419,
                    "88": 0.6499297022819519,
                    "89": -0.5367748141288757,
                    "90": -1.589687705039978,
                    "91": 0.8399213552474976,
                    "92": -0.6556246876716614,
                    "93": 0.36943626403808594,
                    "94": 0.25819557905197144,
                    "95": 0.32641443610191345,
                    "96": 0.9025300741195679,
                    "97": 1.7463347911834717,
                    "98": 0.781830906867981,
                    "99": 1.4599651098251343,
                    "100": 1.1357101202011108,
                    "101": -1.7371299266815186,
                    "102": 0.5444641709327698,
                    "103": -0.4580453038215637,
                    "104": 1.2404066324234009,
                    "105": -3.056286573410034,
                    "106": -0.19853191077709198,
                    "107": 0.5985908508300781,
                    "108": 0.009517578408122063,
                    "109": 2.8050003051757812,
                    "110": 0.2505215108394623,
                    "111": 1.0165045261383057,
                    "112": -0.6321254372596741,
                    "113": -2.4455459117889404,
                    "114": -0.664412260055542,
                    "115": -2.1184492111206055,
                    "116": -0.5517078638076782,
                    "117": 1.3064565658569336,
                    "118": 0.9037320613861084,
                    "119": -1.0323898792266846,
                    "120": -2.005929946899414,
                    "121": -0.7596983313560486,
                    "122": 1.2369384765625,
                    "123": 0.07921769469976425,
                    "124": -0.43899422883987427,
                    "125": -0.566067099571228,
                    "126": 0.5461112260818481,
                    "127": -1.5811305046081543,
                    "128": 2.037461042404175,
                    "129": 1.0430148839950562,
                    "130": 0.9455209970474243,
                    "131": 0.3357015550136566,
                    "132": 1.2053495645523071,
                    "133": -0.7912039756774902,
                    "134": 0.11815647035837173,
                    "135": -1.574263334274292,
                    "136": -2.439544200897217,
                    "137": -2.6205506324768066,
                    "138": 1.7360668182373047,
                    "139": 1.55435311794281,
                    "140": -1.2886664867401123,
                    "141": -0.6800239086151123,
                    "142": -1.361521601676941,
                    "143": -0.13526864349842072,
                    "144": 0.17121222615242004,
                    "145": 0.4147861897945404,
                    "146": -2.5605955123901367,
                    "147": 3.270455837249756,
                    "148": 0.17460449039936066,
                    "149": 0.13427917659282684,
                    "150": 1.369346022605896,
                    "151": 1.9538676738739014,
                    "152": 0.5084267854690552,
                    "153": -0.5023936033248901,
                    "154": 0.18428459763526917,
                    "155": 0.5854604244232178,
                    "156": 0.9912863969802856,
                    "157": 2.861069440841675,
                    "158": -2.9520998001098633,
                    "159": 1.3822623491287231,
                    "160": 1.4739419221878052,
                    "161": 0.8287853598594666,
                    "162": 1.672019124031067,
                    "163": 0.4664614498615265,
                    "164": 1.9146759510040283,
                    "165": -0.5093045234680176,
                    "166": 0.43084993958473206,
                    "167": -2.549272298812866,
                    "168": 0.7350550889968872,
                    "169": 0.9150794148445129,
                    "170": -1.1357628107070923,
                    "171": -1.0335451364517212,
                    "172": 0.06326586753129959,
                    "173": -0.997498095035553,
                    "174": -0.8501019477844238,
                    "175": -0.14244823157787323,
                    "176": 0.5999774932861328,
                    "177": 0.5294423699378967,
                    "178": 1.8097600936889648,
                    "179": -1.9314754009246826,
                    "180": 0.03198544308543205,
                    "181": 0.3043714165687561,
                    "182": -0.6645422577857971,
                    "183": 1.6478191614151,
                    "184": 1.1088324785232544,
                    "185": -1.5818312168121338,
                    "186": -2.144580125808716,
                    "187": 1.5441731214523315,
                    "188": -0.06347491592168808,
                    "189": 0.39414262771606445,
                    "190": -2.0256783962249756,
                    "191": 1.1195138692855835,
                    "192": -1.1712301969528198,
                    "193": -0.8086333870887756,
                    "194": -0.46937841176986694,
                    "195": 1.0337940454483032,
                    "196": 0.8739949464797974,
                    "197": -0.22939248383045197,
                    "198": -0.29549676179885864,
                    "199": -0.5585011839866638,
                    "200": 2.6097214221954346,
                    "201": -0.9042451977729797,
                    "202": 1.7543728351593018,
                    "203": 0.9266310930252075,
                    "204": -3.195669651031494,
                    "205": -0.4532824754714966,
                    "206": -0.10888620465993881,
                    "207": -0.9207456707954407,
                    "208": 0.5410860776901245,
                    "209": 0.31965720653533936,
                    "210": 0.1458762288093567,
                    "211": 3.0284180641174316,
                    "212": -2.858795404434204,
                    "213": -0.6719949245452881,
                    "214": -2.8646645545959473,
                    "215": 1.1012319326400757,
                    "216": 1.9994333982467651,
                    "217": 0.6146310567855835,
                    "218": 0.14250710606575012,
                    "219": -1.284396767616272,
                    "220": 0.5169357657432556,
                    "221": 0.9204871654510498,
                    "222": 2.22358775138855,
                    "223": -1.9596999883651733,
                    "224": -0.15278002619743347,
                    "225": 0.29105067253112793,
                    "226": 1.949831485748291,
                    "227": -1.311814546585083,
                    "228": -1.160994291305542,
                    "229": 1.4641997814178467,
                    "230": -1.2487335205078125,
                    "231": -1.280890703201294,
                    "232": -0.11933523416519165,
                    "233": -0.4875984191894531,
                    "234": 1.1182304620742798,
                    "235": 0.3497006297111511,
                    "236": -0.9364794492721558,
                    "237": -0.9014871716499329,
                    "238": 1.9354712963104248,
                    "239": -0.968925416469574,
                    "240": 0.6857892870903015,
                    "241": -1.6357554197311401,
                    "242": -1.851420283317566,
                    "243": 1.7762948274612427,
                    "244": -2.2455317974090576,
                    "245": -2.1665961742401123,
                    "246": -1.9352381229400635,
                    "247": -0.3241862654685974,
                    "248": 0.0049311514012515545,
                    "249": 0.018104851245880127,
                    "250": 2.2261962890625,
                    "251": 0.8707288503646851,
                    "252": -1.6253938674926758,
                    "253": -1.1719858646392822,
                    "254": -0.7986544370651245,
                    "255": -0.8133817315101624,
                    "256": -0.4106876254081726,
                    "257": -1.2913737297058105,
                    "258": 2.734042167663574,
                    "259": 1.009874701499939,
                    "260": -2.674356698989868,
                    "261": 0.8057593703269958,
                    "262": 0.47109198570251465,
                    "263": -1.2024644613265991,
                    "264": -0.32221075892448425,
                    "265": 0.21556134521961212,
                    "266": -0.8214442133903503,
                    "267": 0.5965655446052551,
                    "268": -0.9032657146453857,
                    "269": 1.3815451860427856,
                    "270": 0.3267492353916168,
                    "271": 2.1162688732147217,
                    "272": 1.0118721723556519,
                    "273": -0.7979339361190796,
                    "274": 0.5593279600143433,
                    "275": 0.6826319694519043,
                    "276": 0.6584371328353882,
                    "277": 0.3097064197063446,
                    "278": -0.22385047376155853,
                    "279": 0.5559809803962708,
                    "280": 2.9496800899505615,
                    "281": 0.5787540078163147,
                    "282": 0.9665151834487915,
                    "283": -0.22855593264102936,
                    "284": 1.4399135112762451,
                    "285": 0.012025813572108746,
                    "286": -0.05549502372741699,
                    "287": 0.7148199081420898,
                    "288": -0.11922159790992737,
                    "289": 0.28783363103866577,
                    "290": 0.14823950827121735,
                    "291": -0.7180261015892029,
                    "292": 1.663153052330017,
                    "293": 0.7518659830093384,
                    "294": 0.3103000521659851,
                    "295": 0.49137890338897705,
                    "296": -0.12375864386558533,
                    "297": 1.0628468990325928,
                    "298": 2.318145990371704,
                    "299": -2.027456045150757,
                    "300": 0.750651478767395,
                    "301": -0.06639741361141205,
                    "302": -1.2229195833206177,
                    "303": -0.6110281348228455,
                    "304": 0.07931959629058838,
                    "305": -1.721462607383728,
                    "306": -0.18197083473205566,
                    "307": 1.4407676458358765,
                    "308": -3.34414005279541,
                    "309": 0.5076166987419128,
                    "310": -0.34919866919517517,
                    "311": 1.9116755723953247,
                    "312": -2.1082775592803955,
                    "313": -0.7625851631164551,
                    "314": -1.1479623317718506,
                    "315": -1.4462344646453857,
                    "316": -2.6639914512634277,
                    "317": 0.7961055040359497,
                    "318": 0.4349680244922638,
                    "319": -0.7197096943855286,
                    "320": 2.401327610015869,
                    "321": 2.630932092666626,
                    "322": 1.3726001977920532,
                    "323": 0.3081367313861847,
                    "324": 1.853021264076233,
                    "325": 1.4021421670913696,
                    "326": 0.9806205630302429,
                    "327": 0.6330722570419312,
                    "328": -0.9460068345069885,
                    "329": -0.2942192852497101,
                    "330": -1.8969179391860962,
                    "331": 0.16238510608673096,
                    "332": -1.2360281944274902,
                    "333": 2.0813825130462646,
                    "334": 1.1524792909622192,
                    "335": 1.1292482614517212,
                    "336": -0.4213700592517853,
                    "337": 0.7673642039299011,
                    "338": 1.9863295555114746,
                    "339": 1.3271042108535767,
                    "340": 0.06852458417415619,
                    "341": 0.8987253904342651,
                    "342": -1.6744813919067383,
                    "343": -0.8767253160476685,
                    "344": -0.3745444715023041,
                    "345": -1.2512431144714355,
                    "346": -1.4500573873519897,
                    "347": 0.0661090835928917,
                    "348": -1.0022687911987305,
                    "349": -0.310320645570755,
                    "350": -0.2077133059501648,
                    "351": 2.0404043197631836,
                    "352": -0.37821894884109497,
                    "353": -0.7594935894012451,
                    "354": -1.5244306325912476,
                    "355": 0.6001683473587036,
                    "356": -1.0843805074691772,
                    "357": 0.2843768298625946,
                    "358": -0.0691397413611412,
                    "359": 2.3655853271484375,
                    "360": 1.0035825967788696,
                    "361": 0.40235674381256104,
                    "362": 1.6187700033187866,
                    "363": -0.7113343477249146,
                    "364": -0.4713643193244934,
                    "365": -0.10463760793209076,
                    "366": -2.1792545318603516,
                    "367": -2.026839017868042,
                    "368": 2.1363916397094727,
                    "369": 0.21205686032772064,
                    "370": 0.35701674222946167,
                    "371": 0.7558785080909729,
                    "372": 1.7475262880325317,
                    "373": -0.12788625061511993,
                    "374": -0.5991432666778564,
                    "375": 0.3909390866756439,
                    "376": 0.9214667081832886,
                    "377": 0.5329591631889343,
                    "378": 1.9682902097702026,
                    "379": -0.1145840436220169,
                    "380": 0.2817476689815521,
                    "381": -0.759850800037384,
                    "382": 0.21974866092205048,
                    "383": 0.6264118552207947,
                    "384": -0.28981009125709534,
                    "385": -0.4489063024520874,
                    "386": 0.6173339486122131,
                    "387": 1.6616438627243042,
                    "388": 2.3775928020477295,
                    "389": -1.6700767278671265,
                    "390": -0.03046414628624916,
                    "391": 1.3365498781204224,
                    "392": 0.6025425791740417,
                    "393": -2.2590839862823486,
                    "394": -1.969774603843689,
                    "395": -2.1397624015808105,
                    "396": 0.3943507671356201,
                    "397": -2.2267367839813232,
                    "398": -0.09082438796758652,
                    "399": 0.10338246077299118
                }
            },
            "inputBias": {
                "rows": 20,
                "columns": 1,
                "weights": {
                    "0": -0.4224459230899811,
                    "1": 1.1982629299163818,
                    "2": -0.952908456325531,
                    "3": 1.1669069528579712,
                    "4": -0.9022027254104614,
                    "5": -0.19199518859386444,
                    "6": 0.16011038422584534,
                    "7": -0.5193458795547485,
                    "8": -0.7267054319381714,
                    "9": -0.933139443397522,
                    "10": -1.3865901231765747,
                    "11": 1.4515621662139893,
                    "12": -0.7833441495895386,
                    "13": -0.8347761631011963,
                    "14": -0.6144710183143616,
                    "15": 0.29328805208206177,
                    "16": 0.47523853182792664,
                    "17": 0.8011856079101562,
                    "18": -0.5606575012207031,
                    "19": -0.8291011452674866
                }
            },
            "forgetMatrix": {
                "rows": 20,
                "columns": 32,
                "weights": {
                    "0": -0.20949435234069824,
                    "1": -0.19200396537780762,
                    "2": -0.13266661763191223,
                    "3": -1.982859492301941,
                    "4": 0.007490789517760277,
                    "5": 0.4595438241958618,
                    "6": 0.27406349778175354,
                    "7": 0.3042905032634735,
                    "8": -0.7301016449928284,
                    "9": -0.21410535275936127,
                    "10": 0.047683101147413254,
                    "11": 0.657553493976593,
                    "12": 0.6598818898200989,
                    "13": 0.6645604372024536,
                    "14": -1.5515528917312622,
                    "15": 1.9179433584213257,
                    "16": 0.046323344111442566,
                    "17": -0.5383684039115906,
                    "18": 0.6955277919769287,
                    "19": -0.6744080781936646,
                    "20": 0.15055079758167267,
                    "21": -0.542725145816803,
                    "22": 0.8612481355667114,
                    "23": -0.037278950214385986,
                    "24": -0.0369618721306324,
                    "25": -0.8634845614433289,
                    "26": -0.15798328816890717,
                    "27": 0.38002896308898926,
                    "28": -0.56590336561203,
                    "29": -0.06499623507261276,
                    "30": -1.3517545461654663,
                    "31": 0.039728883653879166,
                    "32": -0.4037003219127655,
                    "33": -0.26518714427948,
                    "34": 1.2609606981277466,
                    "35": 0.791999101638794,
                    "36": 0.8616835474967957,
                    "37": -1.004328966140747,
                    "38": 0.4118519127368927,
                    "39": -0.1628066450357437,
                    "40": -0.08010216057300568,
                    "41": -0.3120068907737732,
                    "42": 1.7965103387832642,
                    "43": -1.0091910362243652,
                    "44": -0.4680253863334656,
                    "45": 1.1063729524612427,
                    "46": 1.6905053853988647,
                    "47": 0.21589356660842896,
                    "48": 0.6061041355133057,
                    "49": 0.5134899616241455,
                    "50": 0.627610981464386,
                    "51": -0.5028761625289917,
                    "52": 0.061482660472393036,
                    "53": 0.28200462460517883,
                    "54": -0.28761234879493713,
                    "55": -0.4291668236255646,
                    "56": 0.4048478305339813,
                    "57": 1.1266930103302002,
                    "58": -1.568566918373108,
                    "59": -0.385519802570343,
                    "60": -0.25363436341285706,
                    "61": -1.1140787601470947,
                    "62": 0.11183793842792511,
                    "63": 0.6279853582382202,
                    "64": 0.7866252660751343,
                    "65": -0.04075193032622337,
                    "66": -0.21811020374298096,
                    "67": -1.5227642059326172,
                    "68": 1.226158618927002,
                    "69": -1.4715802669525146,
                    "70": 0.1547907590866089,
                    "71": -0.4343840181827545,
                    "72": 0.15755929052829742,
                    "73": -0.2263801544904709,
                    "74": 1.042379379272461,
